[{"cnt":12,"weights":[[1.178566744273061,0.570794757573619,-3.9612050780583505,0.96333398391429,0.7699606898116855,1.1731130743603893,0.3310330897126969,-4.022921897508137,0.05395395682077131,0.38635270379899667,0.25901137586367223,-0.0484172211033705,5.032361098281593,-0.44233359560652497,-0.11834498809213458,0.7788935056927964,0.144900262758741,0.34560775469304045,0.4935983103618084,1.1660811886476106,0.5584807012912287,0.7442188375470677,0.21253324524692493,0.7433663244403559,0.638588617170573],[1.4121910010567464,1.1474147878805312,-4.243717122606974,1.1161040591491258,0.877423426892317,-1.9138737972097202,1.7914875284120588,-4.455521569791818,1.7267736048126563,-1.691285009499338,1.8565910250003752,-2.2580510054505534,4.676479848238798,-1.7519521961101112,2.061050783473054,1.0290810769068655,-1.3048402946743785,-0.9108716357121297,-1.4983518355888619,1.1236013043697834,0.7632172639532994,1.0963136741169168,2.177553465700474,0.7809042448421138,0.7988492718090787],[0.6113598495355238,0.9923023733741722,0.6897169986140654,0.34074212865053277,1.0490168589406177,3.1732161775372094,-1.399815693068034,0.10494768453340918,-1.9822200296354853,3.2713882967786314,-1.6052485359296826,-0.3669144438564253,0.7516727461579743,-0.9678897688987836,-1.660562980623008,0.8785580484618442,0.5642985618964527,0.5045250071833262,-0.04328336813412673,0.49794668102203,0.9417252981290171,0.4988707854861197,-1.726410936859706,1.201256068376025,1.313276121583723],[0.20077315789794006,0.1678564392990995,0.5478995315078596,0.18299718136307,-0.029184707308114448,-2.099865827001139,2.0135945360450855,0.4136927281916936,2.151601806066522,-2.016152510137813,2.2962690143779763,-0.5822624548853629,-0.3896603585140197,-0.9053260022885247,2.0064184005388324,0.37723276263394606,-0.46427881849428615,-0.33983340665293466,-0.42766516901684265,0.04834238560284921,0.22480145783122338,0.3382591754902434,2.1826486679569634,0.5621661188267716,0.3796142327878223],[-0.18530597613959982,-0.6238264707123031,-3.721844247600717,-0.8339388843908131,-0.03492519115256629,0.13246540751703414,-0.5480912059417247,-4.621630845578978,-0.3366464377151829,0.26841512394243533,-0.5511507014634927,0.9700068098309245,4.6334056201533365,1.4702887227215573,0.036737198849532464,-0.2697208146504381,0.5630234084228402,0.2542590404031372,0.12584613271823772,-0.6007527615166312,-0.8483771842116448,-0.8727718077034504,-0.035552021822107656,-0.03775200584817461,-0.8149112277556222],[-0.06419669102713811,0.4425293801727691,0.8017230696038135,0.6749871137467913,0.5316796638330972,-2.075409428790243,2.3012508923953168,0.2988727734976221,1.9933178026844016,-1.9938396526632207,2.326354990482335,-0.49618797352758043,-1.0326527475411094,-0.46432529457011645,1.7146468182015087,0.1306449533243379,-0.5567330459193286,-0.40844528814273323,-0.286720879998872,0.42257034316566167,0.4851771015728893,0.6107532041581386,1.9393568056829487,0.2796576587579978,0.5923252689843572],[0.6376168587126646,0.32188252496109565,4.83204747221,0.7761445762207951,0.7772884213350907,0.5125476191518917,0.15786888621644166,4.152350907876207,-0.15529141427110252,0.10150130751595428,-0.04084190123789134,-0.4936866880447948,-4.092589435942989,-0.7663401305671439,-0.49124903523953267,0.7179408921026119,-0.1530105595641143,-0.5657626994412186,0.36067680176053457,0.2638522073515503,0.2240221484590876,0.08154658112220091,-0.5161267657597923,0.6370375945770811,0.6234528051455869],[-1.2732252642685555,-0.4841901433558517,0.08250714459877571,-1.0073365846105553,-0.6029505274829067,-2.9846391130222494,1.7202563980707926,0.2870713520501918,1.7550195543589748,-2.836572373210289,1.3231658815255707,0.8157644720117737,-1.5140445027409553,0.38072187704471433,1.0746351237113456,-0.8135906328629879,-0.1820415849830013,-0.11741058356607119,-0.08640760201716781,-1.358742440887725,-1.1624633394626136,-0.5460995264816602,1.7691048004861494,-0.815629940097813,-0.840551869738653],[0.879699532397307,0.8063392247504989,4.602820429283755,0.47175071901013366,0.6136401639468811,0.039044035586173656,-0.15315833710951,4.029323979209427,-0.09104064307327567,-0.07319035442636466,0.6818109439049893,-0.942208725724666,-4.3335140030567025,-0.8712516947181498,0.6354782200160074,0.3420999031576713,-0.2177167125945133,-1.1727618958385437,-0.27180926802240907,1.006173220038261,0.5631975141417446,0.1694250391035153,-0.12307291461720282,0.5402158441702025,0.8091277591907032],[0.6904935542918261,0.06940718185666353,1.4857057063017463,0.7377575641570234,0.30909040889531136,-2.2999975216605417,1.7844496237573966,1.037214315783168,1.678587907396613,-2.27108085653374,1.2287386377086242,-0.32289850560712935,-0.9858806082650593,-0.9083892918461642,2.1019086108024054,0.6736073192773729,-0.1442491530306373,-0.12078913534304951,0.043261324367257506,0.40012837014441843,0.0558627397796997,-0.059854706927974934,2.091638336491267,-0.19686871473217632,0.5808264772985293],[-1.0072354630266016,-1.481055562251193,4.381887599989857,-0.7368322661756795,-1.1457784133010565,1.5875263896059455,-2.200476211330914,4.127757859836776,-1.7235858832678885,1.9730820438811245,-1.5768886599788599,2.0924016803806706,-3.6831332222411457,2.2725157038792982,-1.8764573162936742,-0.5645628642005612,1.0364394709819447,1.0388103063445495,0.7426634873524331,-0.8922874647036236,-1.2848785218897583,-1.2902279600765583,-2.0892448488442477,-0.6541602139788713,-1.2020612103568824],[-0.827212521615023,-0.7492641244438747,-4.286428978604452,-0.9109112091195936,-0.37469106099352323,0.09494698247144495,-0.16854286047619224,-4.363567793197281,0.1049107412327817,0.10762965140435857,-0.1775311641511125,1.4331972278244014,4.574259674394909,0.7550214077544875,-0.13556218054187233,-0.15357039164109054,0.2736745527842024,0.20408749727114858,0.694198324425693,-0.41451264465440313,-0.6311057742949818,-0.44058834573070943,-0.6637433110416201,-0.6388342695733427,-0.08863957683834546]],"activates":[0.0011664947577020627,0.001101644182289401,0.00037475715360018344,0.9998626387448895,0.0016675112221993544,0.9998951747102911,0.9982044287439278,0.9998526255923658,0.9977764259175192,0.9999525211332654,0.9980262084298595,0.0017783550433286678],"bias":0},{"cnt":12,"weights":[[1.1868284301685292,0.13749724635501456,1.7589415135720656,-1.002088690141097,0.5848493509930329,-1.337241731719293,0.3646957268310144,-1.0319637524387453,-0.38437579324537735,-0.8510127102157429,1.3274071724887317,1.014255213293106],[1.2515951847777265,1.0062316854967217,-1.0815299249862518,-0.2708945022400177,2.4752273830017257,-0.6681543330121047,-2.296914225545865,0.3326017032535307,-2.346467827367856,-0.931767299940369,0.2242794108424606,2.7395571368589473],[0.7595335804360464,1.8314413017505349,2.403318715358292,-0.6496127858061636,-0.5943869501418386,-0.3141094180532278,0.8567890406828224,-2.266950792663239,0.7938717852583064,-0.6026358607189886,-1.8607215605505874,-0.29197722029504475],[0.5145625192714175,-0.9898790298876352,1.2142258862651123,-2.024532008826983,1.192700919742199,-2.2285851147806977,0.03512372850008706,-1.4698505506638064,0.13460234173603539,-1.9667284544954586,1.4086028578765424,1.3033870642017356],[-1.2830861346444868,-0.6103228275663669,-4.008315290142891,1.3882389171395193,0.5374318035987297,1.069190649332998,-0.7461631206111965,2.6126598454675274,-1.381442105358178,1.0322969562008049,0.5351267299070871,0.7471359895288745],[2.206253064390134,1.5164958077218456,0.8864204935194725,-0.2985489958423325,1.9781706420197291,-0.4724144753978905,-0.8628262365612601,-0.9650495184938628,-0.4397351175275388,-0.36098101203260363,-0.945691815368242,1.9832076782729855],[-1.241602279436724,-3.7759307380514735,0.47461118663588664,-0.903726991426887,0.804222310053602,-1.1622859612720933,1.4823557058887429,1.0581366907550624,1.091928966756514,-0.6053952759227877,3.9090803632736777,0.432063687554013],[-0.11852876694220163,0.8462139257555131,-0.5107822367111198,2.0636040781339275,-1.4391534429760109,1.87385284688549,1.0034612072560394,1.2380724303796709,1.5302272247047064,1.8032177501004574,-1.8739928456232833,-1.1771035513658663],[-0.5332982750920939,-1.2703021918083295,-1.8053525410856628,0.5819486393673614,1.4774720458976094,-0.2541902637468061,-0.38636083594222376,2.8031856707723506,-1.241376707363702,0.44837315375187636,2.686709103117952,2.207678271813971],[-0.8717387377426574,-2.9524863582766425,0.7028467304996887,-0.9259263977358347,0.8195977563485608,-0.7874526638492634,0.7754929094022031,0.5196314363155117,0.33219417329560974,-0.6313160808379518,3.7654988346673237,0.21180500054009152],[1.053867115454913,-0.4884287576429266,3.0944325414950264,-0.8081605187594532,-0.7752296902536091,-0.39711355568539597,1.9262532728610013,-1.6802978700565518,2.219935125228649,0.2191548127448583,1.0603520513441032,-1.1613059181852012],[-2.5843856798493396,-2.8979247001842356,-1.8347671295623307,-0.3556829748104346,-1.7005162205752438,-0.006043554701672426,1.0597924387077338,2.227644466851404,0.861131836228729,0.4788446351233447,1.5185521861033728,-1.2871660895804615]],"activates":[0.05158527529065686,0.002632585149908411,0.01728938684572151,0.002216920897981953,0.9891328049442011,0.013006660131077501,0.992263859387313,0.9995156889062782,0.9904313056651128,0.954194318146605,0.9261170366807638,0.9968747256766717],"bias":0},{"cnt":5,"weights":[[-0.8271896397125834,-1.6319771574126083,1.6793258785771106,-0.7233063605736328,-2.087515795297729,-0.0888349383963819,-0.9649013537894905,1.1350210787126214,-2.0220964079842036,-0.9554231258477106,1.7091471261498068,-1.393575816973057],[0.8934030434626031,0.3681414709740327,-0.2753020718520954,1.9584684686692133,-1.2519481511933965,0.32065671056624434,0.789950343710947,-3.7516894266250924,-0.4142120604655893,1.2582101941601134,-0.8080894416169934,-0.48685641704494215],[-1.1773304379613199,2.4217134668795763,-0.8036605441662898,-1.6711963478317005,1.770190789149154,0.4178438248130646,-1.5695276041037327,-0.9193616469268105,0.7852643523108308,-1.050776700075982,-2.461532970349234,-1.4073158257684397],[-1.2003376006172597,-2.1601716303803493,-1.114919844137463,-0.7045928696857893,0.15733042259628804,-1.771025678220185,1.8266686120377078,-0.49365347587499214,0.3955832414535961,0.46066555707652346,-1.0696620966232102,2.963072841501558],[-0.6724299857723536,-0.7511517745665998,-1.1697058863459895,-0.4485115966936919,-1.062317436607113,-0.17203857093420818,-0.2678444231630338,-1.6359871723797117,-1.024295431667599,0.06349626794646668,-1.4222925944816343,0.005249901845503144]],"activates":[0.009667754391803845,0.009981800543186268,0.009019101092649983,0.9845990625725689,0.005078019389335942],"bias":0}]