[{"cnt":18,"weights":[[2.7186017356599783,-3.5854075402310133,8.505584877398196,1.1738354181729853,1.7807608601657992,4.9565684775914765,-6.623905565368275,0.2623347239270651,-1.514280632346857,6.786687545261025,4.874289014459241,-1.2630616862717767,-7.737735202160526,-0.6868105960867902,-2.3855538309041777,-1.3129709390471602,-8.040845970213937,-3.305849538867972,0.6223944561346711,-0.9244595343427309,0.8912363381857009,-9.50940240650269,-3.1758460415563334,-5.4388214486580555,-7.636843282559327],[0.5324302558334706,3.7288990008979273,-0.5792036058590202,2.2384174682830427,1.0787599003539432,-1.1692184805009704,1.6059643173091662,3.859203235785481,-0.9965006146525534,-2.1702076605100284,-3.5728900412442486,-5.514362451873676,2.616765153730462,-2.9038679842366046,-0.9989145881408534,2.688771504337297,2.0305075719672563,-0.24996492073857327,-0.594500572923323,2.6769989146288693,0.5178039406046999,5.13266918482598,0.038813459858151475,4.239493236468055,3.73460475387247],[-3.1585499796987175,1.0420419779388816,-2.2831727924562095,-2.1021933745290786,-2.7009002356508556,1.795350592586586,-1.1218221723583204,0.6435372662024748,-4.58720219334928,0.6825349576530536,-8.565923138657187,3.8698951999876883,0.769998182118371,1.643466173409783,-4.9325557209004005,-0.7418033208981158,5.541156863116803,1.238721890422904,0.3788657606848184,-0.17825700112048692,-1.5888086225547302,6.0068116347889795,-2.406151442534794,3.3697415072663746,3.8546958530621596],[0.3863525156334243,3.9156986180139373,-0.7613203562230121,1.922530504812375,1.1205225451975078,-1.2809515262356599,1.992119721801534,3.669456731504249,-0.7221980107150953,-2.283976614068855,-3.798129701080395,-5.544161271915899,2.630663704464728,-2.913616553219901,-0.9225823683732954,2.528576980225978,1.592819416951567,0.32161034266504085,-0.49044229743127343,2.3010807348372406,0.9578184816943335,5.570391138581795,-0.31477722099499983,4.236430552865878,3.455190314412834],[-4.276006209323204,2.06880953615555,-3.8106605479822506,-2.5452977233568124,-3.6235690544475156,-1.3280603386983618,0.08494134028128067,2.5925770043957947,-4.792800424525228,-2.3250807297500193,-10.472992650322745,3.265102638847167,1.6932025505739399,1.269021078396267,-2.9793210544493878,-0.5220314764772573,6.902842904532806,2.372875825785011,-2.557522983516923,-1.3267991480880403,-0.9234717471792651,8.145292747445644,-2.432998662704398,4.147258518731885,6.092612951373344],[-2.48101494068701,-3.0448641245718564,5.456944117021413,-3.4538027606803294,-1.96224303866987,2.0806288646071454,-3.4577073160793494,2.94754290165478,-2.0529339825801567,3.7352676907024613,-2.1285443293030606,6.159437527468571,-8.264019093602398,4.248134792442066,-0.7965520297028302,-3.7219761210084785,-0.5554521805661291,0.11773874278832847,0.05752767011422474,-2.6520562757886643,-2.5298221900334434,-3.1519513078371415,-2.6751405445340226,-4.084406193130044,-1.6948854965997575],[-0.738924238867425,-4.055303831598458,1.0850205161413813,-1.9537208101774564,-1.2495514113470294,1.2564904542885662,-1.6027102541461282,-4.356514753682651,0.9700942872563603,2.0333186256349896,4.2754764306708335,5.57876447838094,-2.143969610589317,3.056890694287952,1.1752727418544864,-2.68310589199841,-2.2650288772411153,-0.2740158525815347,0.8549387554077827,-2.3230414751717556,-0.9808375392765968,-5.8218342881758325,-0.31896390352375315,-4.452949535327735,-3.3255514387704386],[4.614064453004344,-1.0934962413106044,1.4400569056111396,2.130985301635991,4.6637417127874095,0.8022677257255044,0.6019166077381042,1.1133570905606336,1.4967760832304093,-0.5999295386855057,6.803334816291758,-8.473837020763048,-1.0086701757179437,-7.021651233738816,1.5153327900546436,3.744725654030477,-6.952072904003263,-3.999550561772306,-0.773665550297089,3.3274465081985776,1.4623207045424707,-4.098975380637518,0.5068134467099631,-2.208897540976811,-2.844559410209372],[0.5859553089449346,3.8890049617823936,-0.816709848227388,2.183688064275576,0.8859470578171216,-1.13333672584544,1.8109868832481226,3.7278419094688524,-1.0989216623304674,-2.2941682518232565,-3.457777467601907,-5.652053942799358,2.3611131732500006,-2.980256992052167,-0.8556742468034216,2.361548858916083,2.1790978675677493,0.038956630794881195,-0.7585650375835716,2.7271918613081008,0.94700711060196,5.239891274627788,-0.016306313900777216,4.362910301115922,3.338627497903661],[-0.2876800477104946,-3.5984119341272987,0.7963566503523245,-2.5254671015107664,-1.3919430152023597,1.5414759540462273,-1.7517915806085937,-4.187647260539965,1.2312538980342005,2.124856282601278,4.039561934382578,5.349378561013894,-2.330766846653671,3.025615068367027,1.5850777767070738,-2.7135681537966936,-2.34686954570766,-0.451346167697705,0.9410458716570165,-2.671896390235682,-0.5469185256300552,-5.934448594374873,0.029081022722949063,-4.273246713566149,-3.9569561290688977],[0.08388853216062446,3.3816540741337437,-6.479605035135241,2.5657513297763086,1.0101922676356117,-3.494982624669481,3.9140725680178887,-0.8813144855969166,1.3296611696137233,-4.480606539302254,-1.2955588573957848,-5.075667407088069,7.4747116042103885,-3.052923160762172,1.0062447062385251,2.6788873206841353,1.6096854266825846,0.007117366545476757,-0.6991237287964419,2.2594260198530427,0.6406874189339534,4.520914068662726,2.090118057034235,4.137438655714175,3.268992987023968],[0.5982164456181487,3.2577868932702936,-6.1202313805662065,2.37510191033985,1.140222589532643,-3.703906341822542,3.9900001437275314,-1.282420666494102,1.1834045749719344,-4.804164026938833,-1.578387557764533,-5.1611234011613005,7.710118464397836,-3.117557064921669,0.7431264813473902,2.738556623774238,1.8090793365082702,0.11847122922806,-0.8426621506870292,2.677949371946979,0.8698153325753196,4.716801728729817,2.6143447411579244,3.5342782901130527,3.405076360786011],[0.27443170340678413,3.2022852190777735,-1.1994004274375287,2.6731338815529204,1.0997517590572603,-1.210699220652197,1.8164630022315273,3.6145951746547653,-0.855580804938089,-2.2564871627593925,-3.2350092095571528,-4.872955105456392,2.423203683298263,-3.108152173872166,-1.0167913842556289,2.2928594835508607,1.65738594945682,0.36403026988433795,-1.02366593199997,2.6214255153579957,0.48850228756972336,5.207496960462947,0.3578861734227701,4.0094953037158625,3.1536269021027916],[3.1412349501451446,-0.13899897693634422,2.4909123860806357,-0.13514362686576778,5.421035577599228,1.9201957507588556,0.9690875885722521,-1.5166490173023766,5.990994524797987,3.0683769077790637,8.670276254846451,0.698492164444716,-3.9651556202427445,-2.9556203659452773,5.076651262641484,-1.3510765096811232,-3.857107883086132,-3.3710567386324675,0.11309405983164052,2.0082131678420785,-0.01162382339501148,-6.267196260830229,-0.10052878198668559,-5.8824394649088,-3.2346617827551167],[-0.042052431654205503,-3.0984957696370734,0.07876279892417588,-2.0664625999338657,-0.7066741661177048,1.3388547463178428,-1.6525105790670367,-3.9587565618057567,1.4463372549301896,1.9047221980626086,3.980879031356674,4.638738933186445,-1.7332312844791635,2.6540739446465493,1.3274760745671046,-2.6294498891005005,-2.3809435292909655,0.0614277337701648,0.5497718455642616,-2.720188909956335,-0.7889341426257239,-5.020267872202134,0.4542231710741591,-3.9231552568227506,-3.983666064820804],[0.6106797222449037,3.842302216790497,-0.731876904697517,2.575369740822657,1.3531447794453235,-1.2124813300418764,1.4591679374356192,3.7272387220189414,-0.7374692613164228,-2.107711530139226,-3.7033684164539555,-5.495595081214123,2.1076051129835216,-3.2522617052429834,-0.947819104596349,3.2168111905940906,1.7531038686020883,0.6526508320896194,-0.6045038185596718,2.430351051152,0.791566396818363,5.70847536800136,0.00722786366862148,3.9238227654164346,3.053384240731038],[0.48708977534463826,3.447371252748625,-1.1221797896051018,2.315802951684509,0.7883046165285799,-1.2172734745052403,1.8048604718325814,3.6085673272705474,-0.6818383642252464,-2.429438097337114,-3.6295681732849343,-5.144996834800776,2.31657517127391,-2.9963984835713955,-1.0385160592801406,2.312396930330827,1.7861418173340602,0.49468860817596566,-0.9061289878340993,2.7201236411096277,0.8844101345090875,5.660553495731351,0.1693872678582161,3.7859265230858763,3.0903419858917816],[-2.6985866525431055,1.6458648836081369,-2.2163801754100514,-1.9040188765265467,-2.294121479629638,1.6270334958506645,-1.065362641427358,0.45385240843542884,-4.797709198639714,-0.011452191879808147,-8.40211582622415,3.795516877605182,0.43623751013575557,1.7908380549680478,-4.574112762288258,-0.7958255629131392,5.218652992330811,1.9655807528305895,0.3538019540306855,-0.5146384015126829,-1.8280979324069233,5.974810119631835,-2.732643637400168,3.1312499640317557,4.123957297556115]],"activates":[0.000002956354176096561,0.00037971257256726767,0.00002538861544179064,0.00037387258159488307,0.000025959796856836585,0.9993389338539621,0.999719659225468,0.000001074999237832754,0.000378323610785022,0.9997413345234999,0.0005379034747624687,0.0004787009245494667,0.0005521191191203981,0.9999950123736459,0.9992535835078294,0.00038055277413665955,0.0004729814946893322,0.00003679612570851271],"bias":0},{"cnt":18,"weights":[[-2.7186991733688255,-0.24940530714840778,2.678201189480597,-0.24073782302626553,3.118979504854016,-2.4573089841523754,0.04256046243496212,-3.7562825056030493,-0.8772005210617558,-0.30454815901223026,2.707240566715059,2.5913104957384,-0.9859589677793723,-2.273216113178937,0.9737572165212467,-0.7222387352038756,-0.9799291830485942,2.851578056185154],[-1.1073612753318878,1.1438874941124233,-0.2135736903801792,1.414572249864678,-0.08654103591103424,-0.5566703179058203,-1.8800465280555354,0.3958055220771422,1.0329893934449905,-2.282345694241326,0.6303087274977976,0.8319822575466095,1.0159610376594967,-0.7158954794812622,-1.4850851366468827,1.2479457424562412,1.649280168509879,-0.636466764076817],[-2.4487383670337293,0.7662857234976876,2.9220422606973075,0.15370380718282708,3.004169054696502,0.5275734146068606,-0.9597691708373391,-3.1040770352821667,0.176087048887558,-1.0734435692326336,-0.38217707383239563,-0.17795927957458876,-0.262072157213019,-3.125721676716674,-0.30090701440197926,0.7485901940138209,0.3362031146500883,2.0694996858119605],[1.4169597348716358,-1.2200033503738559,0.9146136013186966,-0.9657520893688353,-0.07350225596340157,2.532755096733724,0.9765801363667321,0.4793317032072703,-1.4367212718879248,0.9669020439639956,-3.8563623236314735,-3.8237118167189705,-0.8235295410775351,0.28778242899452794,0.4735459436765375,-0.9023752208343567,-0.5350978058872041,0.9930858483262456],[-1.0821462027530935,1.8185829037184096,0.01221039337056276,1.2952218724915778,0.07534402357723581,-0.849042699136259,-2.338059889636217,0.15408583288813815,1.5565630256203193,-2.2614387890855494,0.38915896875540645,1.2465344322705099,0.7593487416247885,-1.392714655364883,-0.9083979811871642,1.6895079809287574,0.9429162170536902,-0.6134596013971814],[-2.76273719553976,1.5054453663975582,1.8304531800508106,1.4863841335278816,1.4981952484305712,0.08360843598024156,-0.7961503547876239,-1.8046643977551213,1.537119003776647,-1.0014631254922621,1.2368166408588634,2.050196746726696,0.5081511549837673,-1.2262616904382955,-0.32901680954759766,1.4922570276875913,1.0925784349122922,1.016744968125654],[3.5004578146024494,-0.07310189631668393,-2.0078638828652644,-0.7455418826616884,-2.7387680025073307,-0.61535194772084,1.2084099545573133,2.715958497846373,-0.6680976066681455,1.7710162037253496,-0.78811290795311,-0.12712116418911465,-0.4473202866960649,2.975939784894244,0.2966085163535231,-0.8022479241057994,-0.6668830273745099,-2.513355862453278],[-1.5336693793247047,-0.18006509704304646,4.133510331478939,0.06115211052096246,2.589296919854481,0.8084751434472714,-0.8578738062556532,-2.4472367482905435,-0.27301634761589755,-1.5100014839901248,-0.46703111715014684,-1.0516615539455938,-0.2767340550967941,-2.074752715002266,-0.7999510278560911,-0.36448937704092876,0.3572695619226783,3.8724477160320405],[-2.06156675024987,0.2748205643707314,3.392563836977719,0.3412619428584032,2.896992110401385,0.8758445071891392,-0.7629736884115956,-3.071497002652228,0.15843111852649144,-0.9281711057728251,-0.2448145479022221,-0.38138874341691203,-0.053754981634476146,-2.3224423985504035,-0.14956655537476227,-0.5003231562365249,-0.13155759863734004,2.460926256181865],[-0.9471468100342745,1.2089623661424298,-0.15413997859430076,1.0331891181686137,0.44202915608528637,-0.5740537812088086,-1.999340248654168,0.18141270194838208,1.4433868035630417,-2.3565283102281205,1.0418337913649436,0.840122686138033,1.6153406340371539,-1.3903002959657424,-1.5831342173457632,1.0049981663006964,0.8892217582583829,-0.5946458856491429],[0.704110059026064,-1.066567633070688,0.769353108772902,-1.1189775877626744,0.007131878625564279,0.5945052199248431,1.898285600631638,0.44465544720722255,-1.5696305743581227,1.5668776102481397,-0.8982781682268172,-0.6735893996861902,-1.3797741808893051,1.2561888514378396,2.2266403362169522,-1.274951300665572,-1.588330162870776,0.46075332273406966],[2.152356044825956,-0.49314975361525176,-2.5750234969761996,-0.8671581341941227,-2.695073532762049,-0.867505120759608,1.5154192061864247,3.113318164538749,-0.28285781681156935,1.244177660105463,0.0782960385699846,0.24338321199785537,-0.018734510625919125,2.713793490318127,0.3422763128060939,-0.736236774093998,-0.03845203642394079,-2.7724031841089816],[2.282527232643355,-0.8259980665882457,0.5794668270460792,-1.0308985164970088,-0.29845796368429833,2.5187781827270546,1.113401489872206,0.8160247159871912,-1.376855997415728,0.6684706085888227,-3.6035290812192726,-3.935606003431583,-1.10003194229475,0.2147382222862777,0.790315258355745,-1.343669577883445,-0.9080894561219426,0.4774047206543441],[-1.4717089134207968,1.0119104439302202,-1.2232075682366783,1.2518074074057572,0.2050968950112513,-0.8408555176270934,-1.7133848146342492,0.43123922515289415,1.5213118984148766,-1.7282944485261675,0.24823425030355528,0.9556435004859732,1.2423840119576022,-1.1547297093663853,-1.7373555328644832,1.6793242161455182,1.627914414287915,-0.18211880938470712],[1.4077057007736598,-0.14996758273288585,-4.340665507852759,-0.3475406002641781,-2.1763781568511464,-0.41529965794633034,0.5713474429654414,3.236305641056689,0.47673646945306375,1.25871039199492,0.4591350218888566,0.8251037383521549,0.1947640089502544,2.342648638481285,1.1627499687756548,-0.061553758797671415,0.1185989407830488,-4.1664255572056605],[-0.00516856065712535,0.40082143780656676,4.674288486286857,-0.15095569215000387,2.453432763592563,4.493261681267119,0.2900192077639945,-2.7780318453015695,0.48559236480709267,0.5555508647929466,-2.18958197800325,-2.4381112681673804,0.3202738557293221,-0.8025239413461608,-0.3728950152013088,0.08503699444528412,-0.22624566100477891,3.678485142886686],[1.3701373823066858,-1.2218842833600811,0.8274262221753332,-0.8994598269287521,0.3879820940360472,2.7614394634527595,1.2865643247055174,0.05913351056968844,-1.162905070953942,1.0118985460736956,-3.318701823135741,-3.473565692330334,-1.4538773497479645,0.08102099929336999,-0.007943914599333184,-1.1867809325523468,-1.5077989702669536,0.9403221370454721],[-1.9233203991413512,1.107462560049642,-0.8076829487836817,1.480677865622179,-0.5901371689113044,-2.8656132474727425,-0.9862170093212312,-0.33434568835995626,1.3571525541356066,-1.3052550242272862,3.297487239214792,3.9890511795971753,1.3799415152986318,0.1481454801106858,-0.07543120430433795,0.7353121708663122,0.7996833510591908,-0.6354950892009132]],"activates":[0.017694638311820273,0.0009932123553391752,0.007166193786166218,0.9946683643059895,0.0004335313658414746,0.03683517252812549,0.9964380654623999,0.011726383530932003,0.036006911514260435,0.0003718728027474657,0.9994663929320456,0.9929434899350903,0.9950153964196026,0.0007704563771993799,0.9927503731727751,0.9846149022879542,0.9940827649115752,0.006210515805517247],"bias":0},{"cnt":18,"weights":[[0.33503214415061744,0.5184155467979,0.17966173794746837,-1.0124448474525292,1.3717822749366109,1.1104531939372722,-0.39539610900259314,-0.7662758339922721,-0.02754933240214274,0.48940825779184427,-0.007541714176350788,0.4235871421874361,-0.9348017276532743,0.6225619838051133,1.6083609232459057,-1.8845137285408426,-1.3976216033482511,1.9450595938962567],[1.1140911510477354,-0.40182875542814617,0.7140642077356228,-0.24155137506485275,0.10492201219344098,1.017976392601508,-0.9198330744024646,1.8161938210109079,1.150691083796686,0.01355122400154073,0.12594230734081407,-1.4082943314058447,-1.055302599553639,-0.16484062967507507,-2.18340202187575,1.5152104267698594,-0.044316780842513004,-0.3990879673183402],[1.2730200127542488,-0.04417229941975883,0.6898702835473136,-1.647294441800965,0.652658607144152,0.9962125205336684,-2.173239555904177,0.034984681486355036,0.6560298073789728,0.10363878086086006,-0.4180830951263033,-1.3714517007747422,-1.9278051810693555,-0.029890478101501135,-1.3033144171479742,-0.4436992707315436,-1.3456632845526304,0.759534319419278],[2.4937224722393476,-0.4434003611211693,1.2351070264291966,-1.1961579237502689,-0.5047292905045946,0.7005884058263971,-0.6022256094906819,1.755351552036156,0.9067345596605121,-0.5424875870709428,1.4481301240688502,-0.6017897532968242,-0.5749656802295627,-0.7899288204065901,-1.3559107800783488,0.6018776958139501,-0.6251450572635695,0.7525292868145629],[1.0694852492428049,0.6392868408346488,0.06072298716206465,-1.5650157814488506,1.3372753961527388,0.9548157488459752,0.11880948738634166,-0.37182805828212767,-0.03074413555437551,0.8198330592874696,-0.1470012831769544,0.4662342574658437,-1.5941493559245883,1.6710655472752214,0.4302846567607228,-1.2120494088600646,-1.4057956018072881,2.0628528448342416],[1.3895713929002163,-0.6574330428705609,1.3258968574451517,-0.05409848208898263,-0.18861489357907402,0.21472589816772247,-0.7876125885672953,2.2412044743117527,0.6513951281892765,0.21709245822444032,0.08298395586642382,-1.4132003796471555,-0.7252576560750397,-0.6345417188052509,-2.794515701769395,1.8102971191754236,-0.4156335842396783,-0.04746477951245842],[0.5697749049831478,-1.547236810342266,-0.20567455375017749,1.0347691076660375,-1.4963466522763356,-0.8807862615765811,1.3650306538077754,-0.006355635380454189,-0.01538877631569983,-1.4791117387471644,1.7392281398829326,1.4179750447109316,0.5711014202633591,-1.5815362908940125,0.27146456044466655,0.25894679446071833,1.5547818815947094,-0.7071954974669262],[0.3330253649377974,0.8536173933948825,0.7114212203754964,-1.027973735686865,1.8713908275099882,0.9323966415058201,-1.1126274360792865,-0.24138321028570006,-0.22445313690713384,1.6339109814563,-1.692217678175124,-1.1628476370679357,-1.051275085073111,1.5220829346970366,-0.3607200582536584,-0.8106712119120737,-1.6835235339066748,0.2314590603943451],[-1.0597013588258628,0.6192828281670282,-1.0493098842987896,-0.07368297135220603,-0.0683586922983264,-0.8312321565237228,1.4817430853334086,-1.9588763336057595,-0.9980799561662903,0.43602897158751086,0.09948651786349708,0.8812039867909578,0.3066599935273495,0.47146277596696473,2.917936371090529,-2.3591969376571087,-0.12232843145271478,0.6581323076905519],[-0.09080982258615275,0.6279503328613657,1.2291530624468934,1.3539696458248056,0.7883632141244816,0.8090861052223324,-0.5133433277477402,1.0703742080189909,1.2146135031063945,0.4834319422225793,0.08749226508917488,-0.644106428710269,0.6936530063376513,-0.12548431154486728,-0.049688367197808885,1.5437244924189264,0.4820338144176884,-0.2594279051722624],[0.8999871322005318,-0.21572495879288414,0.7695461774279964,0.34163542009110903,-0.3331079312001955,0.8574873438190096,-0.7532289269071627,1.5469268081012337,1.3293420079050642,0.12464098955985385,0.6586952419751522,-0.8989642021460551,-0.11356682966347412,-0.6576191254215198,-2.183653300692405,2.04550417176223,0.8396092047231718,-0.7477286494662991],[-0.6686634760391957,-1.31074198833696,-0.7830255920564401,1.027517746376108,-1.286478115539212,-0.7295884161761125,0.7768814841914354,0.035600436837692775,0.1414817083976593,-0.9380764139931149,1.3176740485135825,0.6840353310282202,1.1289313404184398,-0.8513538758669157,0.03606137940799593,0.645591732473999,1.6339452895311628,-1.598058356539616],[0.8867781119706414,0.5430050267317602,0.8598189350990806,-0.8873930351371521,0.17238340264592625,1.109509929099004,-1.6154930888685988,-0.16764350285740853,0.4943461306461484,0.41169609199387125,-0.9139319051823885,-1.6211534336725066,-1.4995169473568164,0.15522768631753212,-1.360084531657159,0.47991893658476664,-1.6441737213470509,0.055422380954192156],[1.5544381558423288,0.08240866999991858,0.8426837754887353,-1.0802725435831593,0.0800065044681468,0.8575974142316317,-1.5767018292610502,0.6897028294104312,0.6013800814433748,-0.21599839543086702,-0.6973430920138112,-1.613583620491996,-0.49355102607899726,0.21323405000253862,-1.5785703906557131,0.8325022706737142,-0.6266787159219622,0.7690226989930107],[-0.7522467825023843,-0.13420282188953778,-1.1115113739620368,0.6730051931045057,-0.17364750382648503,-0.10169418124064246,2.0665453163304575,-0.8545533294904673,-1.14052788387523,-0.4726413920817557,0.8404102910348067,1.937379553290455,1.5557299075292383,-0.2515936125120711,1.1655616626857916,-0.08075129948544979,1.025785336841868,-0.1977244238091622],[0.6306782550851114,-0.23624213990998044,0.8813015164174708,1.7272479844239874,0.2033783628945266,0.35151608513537985,-0.758852956391703,1.464061022497625,1.4790524524324247,-0.25082533363799975,0.4807113145878157,-1.0203559849629167,1.0878830569067979,0.10556043321909708,-1.9456073542281331,2.6124609134340386,1.6936672424740253,-1.446738344332039],[0.08881478696255396,-1.0919003310077597,-0.6688319489371133,0.5968690064957446,-1.4967254190193455,-0.7829119985186459,1.3236080195607554,-0.32684112208825744,-0.14967315449101937,-1.3006120222347286,1.703339077293501,0.8005163385645186,1.3024378637287328,-1.4751920804800744,0.18904286828763203,0.00037273454364678167,1.6077001657291712,-0.1570476072030049],[1.3856777749540932,0.4595158500142578,0.8119129085784167,-1.4894970668755236,0.20482145620998202,1.19664346292988,-0.49671257498983806,-0.24223816372806198,0.7036231099784883,-0.033367068324623356,0.010602373667253187,-0.012293767298903479,-1.6473905475252502,0.44884099839698816,-0.09126214036047249,-0.3043368564032733,-1.3006941109087273,1.6380124943666712]],"activates":[0.02890824054596927,0.016675984129397522,0.000028173204292338088,0.05998303800921641,0.00810207818135047,0.014843535555059737,0.9997087901686129,0.00014865791555859743,0.9536645106004584,0.953285995952165,0.5091016386563476,0.9992233767063807,0.00013103067708381086,0.0012215545928215088,0.9998837497850579,0.9806924644729544,0.9994168244191628,0.005526939762070275],"bias":0},{"cnt":18,"weights":[[0.0835608364411775,0.3128592628050909,0.6679920725897626,0.27000115340982217,0.02833764761980808,0.3926161012895388,-1.4180555611518437,1.1930256057582262,-0.18674397568876772,0.5842286381417785,-0.35226503883242494,-1.0613860778433641,0.6023210869007831,0.6315002240065986,-0.020010659960965068,0.3103452453850775,-1.4631065038578366,0.6041789750355193],[0.35126281665148523,0.34819423659606474,0.9615469086572441,0.2540526414472766,1.114085130189998,-0.48932259673064465,-0.8852447638389966,1.0239231576028656,0.6646451785354979,0.1562551861353847,0.12116016237543842,-1.1565197319427196,1.0210256753603704,0.1030750805076339,-0.562270436160926,-0.42921911887191055,-1.1839864403260174,0.2889723429252079],[-0.5961667390947001,0.10078137892712588,-0.4696656949226216,-0.30492758150650123,-0.5412303757840736,0.3735347941177254,0.8956289028137193,-1.3576319172809574,0.03823263340727201,-0.16270702142858415,0.07242299035175308,1.3361344191671394,-0.5904426871750115,-0.565609503504747,0.9356306907080082,-0.15279958964313745,1.4628487942585098,-0.38096375992842507],[0.6817703215986854,0.024377574203214576,-0.5523308778478152,-0.48340229542838314,-0.2851130814760136,-0.313064530011483,1.299709045204749,0.06886336420320771,1.207891684281558,0.3054987120036515,-0.5159367515762613,1.1857588072640277,-0.999463445574784,-0.4247877034929502,1.138203002766986,-0.2932737625354914,1.126256375247118,-0.8472346486519805],[-0.16519182278048275,0.5024343085303336,0.09754927721073581,0.36300310251039236,-0.9485669127335585,1.0152588405561267,1.0191959779145976,-0.4834609291442896,-0.49553641258046394,0.7500075246027854,0.8864973949168735,0.7704260521525027,0.5532301617547214,0.8576381681452855,0.10099383137089696,0.7937601033003433,-0.02826607190484889,0.06548467250802457],[0.12334810036063001,0.7005480026690322,-0.19379564888869902,0.29262182365475614,0.2816940213142024,0.9327447388326527,-0.8919274817188354,0.9254630682492839,-0.7914586331019866,0.7015880297546951,0.8678278061519983,0.06827080878029523,0.1614393420520197,0.6096736265437981,-0.023978755695450084,1.1219464064588145,-0.9415661414617895,0.4638513535966357],[-1.2657802132625575,0.036522373564128505,-0.4595562186469755,0.3762857830308681,-1.9647715003555568,0.10134912701750808,0.9739663947320647,-0.6701075729836167,-1.1305388034435553,0.07677077527524691,0.6427523821122697,1.2175230958407708,-0.4376513018852705,-0.24176858904317733,0.06242260453253954,0.9353905295774865,0.42452326237493804,-0.7888723881107564],[0.5086615411187027,-1.0765083137472382,-0.5534274251165148,-0.9430475583345691,0.1520702489223558,-1.2363477229803557,-0.19979077897614325,0.8478371366622103,2.11222591289791,0.36462922830415073,-0.7091386823808442,0.5855139459987091,-0.20924390573971963,-0.5566983228908414,0.9655688332349007,-0.6953381777910458,0.57175856928095,-0.293677960463963],[0.017663812176209524,0.12916411068576725,-1.2607522190125926,0.004335263160331896,0.17867708197470578,-0.037792269174759315,1.076349420849983,-0.07456135789070305,1.3227015417816292,0.2902388399102048,-0.17445538943004307,0.519322186939586,-0.2373127820763947,-1.1949360383972387,1.612184930190472,-0.33908894035896486,1.1969110199841866,-0.9377477806602286],[0.5318204537545048,1.2965171058857656,0.15306114510250707,0.8405737554509828,1.6864137488108888,1.010381128178939,-0.07604471657722664,1.3964069169350457,-0.005324797607228128,0.08419323701854345,0.45820872941039087,-1.064087567466031,0.09042262946668998,0.8250649309402245,-0.2798965224913071,0.072458123007169,-0.9289656759154932,0.6070869190558866],[0.04608494174927451,0.4250953672373617,0.6320697535905789,-0.18663252864698365,0.6124561492646163,-0.7202118524188459,-1.286729981099811,1.2092990221003208,0.21549183126588708,0.18593786982323515,-0.17154557078117091,-1.1510093783014006,0.20511505230676763,0.8256589711253668,-0.704589979660124,0.4979001423583984,-0.9507302639983002,0.6785732821445473],[-0.41134440694423324,0.052370101280718076,1.0046673922035838,-0.27802790743649364,-0.4426204940457782,0.2096136112811562,-0.4496594199956649,0.18656660630603825,0.07334641376636647,1.2407398502020008,0.4767878096442497,-0.24306353542269482,0.9992239537678391,0.5518385989049476,-0.2545833761141379,1.539560819088664,-0.08129091624568048,0.6881421945451895],[-0.07209301882044587,-0.6085540240020367,-0.06869641549980265,-0.8386147164956553,-0.6071309954957241,-0.46701925539514116,0.03858887809974883,-0.02828506960746003,-0.03253966266265264,-0.2098245550403441,-0.2970407752802036,0.25639093433623883,-0.7934033014344286,-0.25442368061301307,0.8745749428173114,0.5589383696534519,-0.31907225512710946,-0.5281083763759675],[1.2878799862818553,-0.5153615495938515,1.0337011728564658,0.0491555077533586,1.5844373181340772,-0.49449977394176964,-0.3956614596151004,0.6792854448537912,1.0967278572351644,0.16381104987477615,-0.7386091328655818,-1.0677358120462637,0.5634190196928004,1.0388285232991592,0.1408783987798096,-1.2773519563582798,-0.6270630397247504,1.025264636111329],[0.3240391494083588,0.650836018907887,0.3834818179349781,1.3821232984583527,-0.8999661423985567,1.1689910773656569,2.032000881563475,-1.5329282038474834,-1.0686516883515504,0.659505516416377,0.8438477037341369,1.3094262639524008,0.24815508437916858,0.5348915265688973,-0.2346585260955838,0.8392600500261826,0.7380677109165166,-0.040327879112891596],[1.0632066313119737,-0.6448026306522092,-0.41042845273846146,-0.11353175374416916,0.0067736630288372296,-0.7270759921544012,0.3579293606362045,0.2734856069464495,1.175072126643928,-0.853941297843308,-0.970542762426849,0.10239002550095253,-0.2201955147345335,-0.6962011489833252,-0.09002809798408262,-1.029725705884484,0.3018265598696787,0.13596419523304354],[-0.6613872367783207,0.9200187595570417,0.42469315681899067,1.063978562123407,-0.417178576515588,1.1713825968925813,-0.4674928706968667,-0.47113400900963853,-1.6386939222381716,0.19029969757004345,0.7936776818121588,-0.6492355397595223,0.7333585246532416,0.7608529808851956,-1.0451884828443196,0.28043585519464914,-0.24459781386388665,0.6553205694154542],[0.45784708736564494,-0.7753625718835992,-0.28559332714764096,-0.5930897219839295,0.4047092269872535,-1.4243213541495405,0.4183524128230561,0.04045780031635629,1.6855711349536588,-0.023053064555270404,-0.7966198147766276,0.5525985175700524,-0.5950524803655238,-0.045174927374476904,0.4010059888288762,-0.7232268435618029,0.7686009516911156,-0.5722246658698731]],"activates":[0.03160471392561307,0.034637883473783486,0.987390126196403,0.9963867893209888,0.9666823362582535,0.4304713536644428,0.9470441183564766,0.9593816324548798,0.9959981675895344,0.1361793199652846,0.03519705410240479,0.8758376963547151,0.7187962790079554,0.0886109669722019,0.9919856738383199,0.3720879621044828,0.04612223748556222,0.9278251167590524],"bias":0},{"cnt":5,"weights":[[0.44953487638564316,0.5686774514162639,-0.7271445128415792,0.10298338539731297,-1.4020729238865606,-0.0866496719317497,-1.4886961031111179,0.9809308267003727,0.44700193132460087,0.275257503091588,0.37582932503614197,-0.5384595125617673,0.22496987173566937,-0.23567386492590767,-2.235117819108801,0.10389647580297284,-0.9056727581592846,0.09793695267749152],[-0.41847139742369954,-1.2050341490487406,0.7067719223226913,-0.06369887584521718,-0.24792074088422503,0.3429068739121919,0.7909535829787699,-1.746351742604607,0.5182068623116896,-0.06654174614901141,-0.9447324221821671,-0.6030155915480633,-0.18465677586184126,-1.5496263844412306,0.2230176762688317,-0.9625333861907994,0.8492364145970166,-1.2884051353625954],[-1.1834829201049644,-0.20623723807351096,0.4892959563505979,0.3031762465561367,-0.8006336041768429,-1.0994119031283303,-1.1123246590582536,0.08572412780830824,0.09680877142038916,-0.3218894867252785,-0.8664742418064458,-1.3612883533148619,-0.13895630745948115,0.9614573941975137,0.16826260999439321,0.910689906633823,-0.3684636358250092,0.5026408306023468],[-0.6001427191631431,-0.775051859740317,0.5489213738888932,-0.041941849390895417,-0.024102815908567332,-0.5949887972500972,1.03645647175396,0.4343427256959569,0.2824243009102665,-1.741630198246894,-0.5546238527798731,-0.5481776246455927,0.5919642623759689,-1.3299504411345642,0.07963692970631406,-0.13063585240022801,-1.1734636248683306,0.39588138583928445],[0.6486017982223824,0.9026438212258665,-1.2111496648708404,-1.4686058298849594,-0.19019854699620511,0.0976116192098591,-0.8547451011714685,-1.001354673389014,-1.1563299830060751,0.14494682970044148,0.669935535413034,0.6347341255730677,-0.4505489219272645,-0.267426273293813,0.1545965934322781,-0.7605122528516416,0.8436580976518482,-1.0650531736606723]],"activates":[0.012042532438031385,0.11339675805324287,0.15349252164585694,0.8543276925665321,0.0015037047144653385],"bias":0}]