[{"cnt":6,"weights":[[-8.232092461151971e-20,-4.881043507107364e-20,-3.259234071679423e-20,-6.131059967926665e-20,-3.452471341510181e-21,1.0016686164192937e-21,0.04000000000000002,1.2761319647572582e-20,0.03999999999999998,-4.44058953457391e-20,0.04000000000000002,0.03999999999999998,0.04000000000000002,0.03999999999999998,0.04000000000000002,-2.1816446900660085e-20,0.03999999999999998,0.04000000000000002,0.03999999999999998,-6.964984099783434e-20,-6.428625973235692e-20,7.154861108363676e-20,0.04000000000000002,2.078860255059484e-20,6.915388189942412e-20],[8.73410547761683e-22,-1.5912743094948104e-22,0.03999999999999998,-3.818002919593581e-22,-6.094227018768996e-22,8.476929400627333e-22,0.03999999999999998,0.03999999999999998,0.04000000000000002,-5.298309616237147e-22,0.03999999999999998,0.04000000000000002,4.1630473616314085e-21,0.04000000000000002,0.04000000000000002,-1.2102362669297607e-23,0.04000000000000002,0.04000000000000002,0.04000000000000002,-1.7260313823362396e-23,5.038424363833921e-22,6.2191616622012765e-22,0.04000000000000002,2.3088684745499915e-22,-2.7047149736167915e-22],[0.04000000000000002,0.04000000000000002,0.03999999999999998,0.03999999999999998,0.03999999999999998,0.04000000000000002,0.04000000000000002,0.03999999999999998,0.03999999999999998,0.04000000000000002,0.03999999999999998,0.03999999999999998,0.04000000000000002,0.03999999999999998,0.03999999999999998,0.03999999999999998,0.04000000000000002,0.03999999999999998,0.04000000000000002,0.04000000000000002,0.04000000000000002,0.04000000000000002,-8.666524485118878e-21,-1.1967413107410146e-20,-7.114873117543023e-21],[-2.382555090442785e-10,-2.0510917862179165e-10,-2.7803259138781357e-10,2.0092600106141504e-10,2.006270724363921e-10,0.03999999995354098,-1.6064060430645648e-11,-2.850132031506768e-10,-1.6480611908705534e-10,0.039999999957130224,1.610399788354704e-10,0.04000000007459556,0.04000000007978775,0.04000000011371061,-1.1362256933125665e-10,-2.3410054242728724e-10,0.03999999977167499,0.04000000022810828,0.039999999858881495,-2.200763790816495e-10,1.8272568183707065e-10,-1.5221136949025715e-10,-2.0474493581791368e-10,-1.5036719109386603e-10,2.744651570035331e-10],[0.04000000000000002,0.04000000000000002,0.03999999999999998,0.04000000000000002,0.04000000000000002,0.03999999999999998,0.03999999999999998,0.04000000000000002,0.03999999999999998,0.04000000000000002,0.04000000000000002,-6.259564935840308e-21,0.03999999999999998,3.2886735108240178e-21,0.03999999999999998,0.04000000000000002,0.03999999999999998,0.04000000000000002,0.04000000000000002,0.03999999999999998,0.04000000000000002,0.04000000000000002,0.04000000000000002,0.03999999999999998,0.04000000000000002],[1.8724156626345437e-11,-2.443786410583229e-11,6.0751762971318924e-12,-2.2680107922537602e-11,-7.589401603627013e-12,0.04000000002122811,-1.5436635473724505e-11,-2.1715613441829905e-11,1.2395277011525989e-11,0.03999999999520496,-2.338991736240907e-11,0.0400000000049551,0.03999999998493827,0.040000000006338764,-9.520898828318897e-12,6.772852388399546e-13,0.040000000014756044,0.04000000001582387,0.039999999998427835,-1.914882778454353e-11,-2.086477337765576e-11,-1.9621491504962396e-11,2.237749323005812e-11,-1.655533578050362e-11,-8.873135145041288e-12]],"activates":[0,0,1,0,0,0],"bias":0},{"cnt":5,"weights":[[0.009783893942822072,-0.0023501791764670554,-0.005748217806680536,-0.03749905335284263,0.9339261887806969,0.0318155300948124],[0.023724914461694196,-0.002122029148781897,-0.00725112137404931,0.8522415753250656,-0.012703229800804657,0.8521558912017105],[0.9158607770302674,0.01189030429364577,-0.022123837628142014,0.09939331603124922,0.018297049571391267,0.05747149457588204],[-0.023135691652261158,0.9624449621150688,0.007827350944159355,0.009936019002786073,0.008511568958439448,0.004400744458981198],[0.02696907580829771,0.00766423939669232,0.9471850518967212,0.0677257187816411,0.008237069955383482,-0.06792645278627031]],"activates":[-0.005748217806680536,-0.00725112137404931,-0.022123837628142014,0.007827350944159355,0.9471850518967212],"bias":0}]