[{"cnt":11,"weights":[[0.29199585426530983,0.20391739707610218,0.5532820418826395,0.2875949372467683,0.5018644477899741,0.704134321289274,0.2184549764888372,0.7794467637685749,0.45426656992689485,0.45595226203169886,-0.2590110845292831,0.4204206998341522,1.0552246757289412,0.983458672577118,0.4741287851976449,0.3440463362707487,0.6297419639275725,0.6361237925549906,0.8757764096257428,0.34194977374385305,-0.25875168118873515,0.4420270322021672,0.716738491648278,0.3023551297229478,0.6529800363255357],[0.09013824669048322,0.18216030454770094,-1.9588394607221815,0.5466646450798294,0.5521448660384431,0.07867174354285843,0.2829737405328397,-2.5740526562118102,0.6535686168069853,0.203683543903328,1.0103601931979727,-0.34579636521904056,1.9007081747783876,-0.8699843708809041,-0.51120939246513,0.6214724718794817,0.4107781154438201,0.04059418129729466,-0.18803146302501741,-0.8129090483477904,0.6809139596936021,-0.24853096016773354,0.7465755458791521,-0.08401832601870983,0.46361468157736396],[0.32640072289764555,0.17511790723481221,0.5485275850504023,0.8895451463738276,0.4496978483762103,0.3737296122071262,0.867578640745731,1.0088259763315923,0.5371164992931791,-0.016226733828235043,-0.2382590866452729,-0.362022607517685,0.37747738316581764,0.412429810073763,0.12703814460841173,0.31093508370509826,1.2231111931072973,1.0740972632435455,0.6995656760775493,0.4860554696596969,-0.24702246879979664,1.2244299520853728,-0.07088349661673099,0.9175029964072897,0.7385359076613326],[0.14974202950447024,1.363744385927066,1.036042881626038,-0.41750533601554957,-0.016968475089869373,-0.2022059414840646,0.29812516767350766,2.5097846568674638,-0.2119924989543782,-1.6622574778869263,-1.0206199075527305,1.8143846057922994,-1.7899334260601627,0.8255957078107876,-0.5937189303329182,0.20798683782407126,0.888916745681465,-0.42141912536316306,-0.6504456519537307,0.6440273405664014,-0.2634782925189505,0.4723597242062276,-1.2834996553140474,-0.7266660566765278,-1.010241146662822],[-0.8768094188895479,-1.3680472634278285,-0.2666588468149363,-1.098975787380252,-1.0297991533973356,0.5092809658118863,-0.5311668954630216,-2.1134335039354024,0.28582929899538406,0.4253366226207901,1.4984057889608546,2.185811994065658,-0.7556466099465594,1.3374026835641744,0.33699775395552223,-1.6648560495944837,-0.607179264165673,0.3162144702405105,0.3644072750921254,-1.0038799967654963,-0.8207091314038808,-2.4761424507860896,-0.06919235453619735,-1.7234691785965455,-1.30488680598635],[0.18420933322943417,-1.3129136063772335,2.816962320067134,-0.011610802452996487,0.8034292587572962,-0.24596179250283667,0.20764127002236304,1.9727748971189565,1.1914372256014734,-0.8744845095518131,1.7349276064603627,-2.4689398318237212,-2.5367764215882533,-2.9033537691019813,1.2696224199887032,-0.08515909262404027,-1.0527520493083902,-0.5919258545299108,-0.9728079475608221,-0.7800357703634789,0.1803341935823662,-0.8320139001975213,1.9987134056227143,0.17975423419466038,0.20986762266279388],[0.35116302396489824,1.0539471861768295,0.555644439608662,0.1942392011016872,0.06623730593591293,-1.0255631655970099,1.1286498988485483,1.3867006327266687,1.1355044057742214,-1.7375298149613423,0.5521454213080748,-0.8609840880922169,0.09106507915674016,-0.6724684545730507,1.422271494681039,1.10865513641214,0.3387428890973367,0.37903530345271397,0.14715926294233198,0.3131929433280975,0.27014731301856576,1.2282891449882094,0.9832188706013576,0.6166265383826801,0.7174864081829614],[0.7061412452101296,1.717790293239577,0.4029672533172017,1.2767417226618436,0.8813757785178564,0.518385310231916,0.09299445285868826,1.2773014411185268,-1.1970633216782407,0.1879403561707117,-2.070560529126676,-1.2843650036106848,1.237441322682359,-0.6482178409110391,-1.1543711468048772,0.8525066871928689,0.866972547326873,0.5302853734727222,-0.04953365919041706,1.4105075142050432,0.9329013673976435,2.3636438826086446,-0.8472113710726645,1.8374372134053645,1.0971899727226693],[1.1513599729742772,-0.17152707320980196,2.2891580270133143,0.6984077257982114,0.20810362615986994,2.0070039781403706,-1.4979983561159937,0.20282601167252975,0.2859238861200963,3.306914132599376,1.0721428303781475,-0.4592896418174155,-0.5717366718081351,-0.5902755155678611,-0.30263339815509327,-0.09434596993619207,-1.0554874639404308,-0.07392306501030721,0.14389737858006707,-0.8681716627059972,0.6736639603916765,-1.683510234835569,-0.7224803472277156,-0.3328578901025104,-1.4377118171919085],[-0.244902650020063,0.6865043636781053,-0.8313468635474534,-0.4568872641892793,-0.847022419666775,0.2569219119391423,0.11438716593535384,1.0852352844142243,-2.523114029507181,0.04647560324855758,-2.5113185489775463,2.9980872964623146,-0.47922216844412946,2.927038420483121,-1.8066473284079418,0.7975502574559996,1.5438495845548952,0.7660120091616397,-0.008979092998640208,1.4256807129948772,0.28758612801371053,1.6769009205514618,-1.8461977235539446,0.14455251611278036,-0.12375130300517637],[0.385831414258699,0.8391753572292983,1.4259381058834568,0.13933741051871848,0.5380062809673274,-0.9922612541176432,0.8957456178122389,2.474999117409252,0.12230089068187484,-1.4447260178574595,0.0846839167430435,-1.0241097614465904,-0.12225043052758781,-0.7247072695987897,0.3785211450132602,1.2170695881109128,0.7063408524782631,-0.03893791956240451,-0.15038969205342137,1.456618544766291,0.5380324546876291,1.6549179679833645,0.47775779755700415,1.0889959306204122,1.2027395313832387]],"activates":[0.997645401341036,0.7177414515574659,0.997191668238684,0.8777664586933343,0.010392049843846384,0.007164027133137236,0.9906577797857222,0.9967509448330757,0.08999670190892518,0.9789620525647178,0.9898862770107087],"bias":0},{"cnt":5,"weights":[[-1.006622365162438,0.21166233489418318,-0.8856696426888256,-1.2524820461293882,-1.1443310285155641,1.9991211333891514,-0.22786319666049232,0.7081292984792574,1.5763167290123528,-2.138044960798286,0.062182940219965496],[-0.04434697801304614,0.021190585852318394,-0.6680313693853676,-0.46659084127416317,1.4416149125499522,-0.882294758891038,-1.8724551661459856,0.3930900713902207,1.3256897327432047,0.24233270076595814,-2.272506674346543],[-0.1548822193232605,1.4004881141081955,-0.5814920503117443,-0.7338023249931693,1.4322087741637854,-1.581844836009687,0.7418469457095717,-2.43603704051258,-1.47521808434357,-1.0196980156749245,-0.6341162179655357],[-0.9941597694377845,-1.8655253268271177,-0.38856483738343667,1.379974905266808,0.6626871391563972,1.677787480060117,-0.16754144333141588,-2.230953749125894,-0.1506474774447427,-0.7717879287294298,0.5944619636761386],[-0.8497579254206145,-1.3176686866112717,-0.3633099681392165,0.9702079429543251,-2.539758998618085,-2.4599674338605753,0.40391049603947154,2.0713434337662258,-1.476530167240001,1.798180957443861,1.0507439739909517]],"activates":[0.014174621561755672,0.011518493273240225,0.021422395651563644,0.01698329432232785,0.9777767630681409],"bias":0}]