[{"cnt":8,"weights":[[0.43054352473788904,0.05979199476038785,-3.087361070729227,1.4541718013391187,2.2455887356561943,0.18775508743761077,-1.5957275306424126,-0.8230479192329823,0.5221334516739254,2.1260770819970705,1.7639334946515939,-5.586141217723521,6.269230990388844,0.22977556385607834,1.2930083116202564,0.2917551866292849,-1.0778378303754155,1.7229838817331642,2.126093308430839,2.4568230627695686,-1.1742507596841676,-4.13281478440958,-0.9489210133405116,-1.3297165448009975,-2.626092316548539],[0.43139399972230164,-1.882489328614867,0.9800996588546687,-0.20828716399396466,1.0811874572375755,1.0483791006073633,-1.2366398302695634,3.914072944751655,0.6256987427254012,1.3563808613034645,1.4899102322871418,-2.629098770246426,1.0713728008202736,1.65931082039047,1.3959643141451248,0.4490854377411341,-0.42354852401361204,2.2247686756720926,2.189166564468716,0.8743148267290042,-1.5848836270894937,-3.3653365625666627,-0.629856285470427,-1.9582376141300897,-2.623722822174748],[2.5956755413675445,-1.9361780656985714,-3.970661105506768,-0.29136530527108706,0.38643239545511143,1.562111732616327,0.44329954580696707,-1.8700095155509473,-1.5213969211752223,0.16005260807043045,2.456422434175643,-2.3321654657055007,5.6430188079547845,-0.40723905983876374,-1.0604963623052213,2.5055576042921084,-1.1036254818214886,1.4063165764302183,2.2118013949682602,0.5958617716545811,0.3148163204800308,-1.4911933750971182,-0.07796438203401368,0.4583777495777746,-0.369323381447958],[1.1141884243187168,-1.7408409320666507,3.8380559229715456,0.7338051403331305,1.29459309452341,2.2015463455545343,-2.1609705670081514,7.0573678236090815,-1.815182645390445,3.4664494815474987,0.07785378404028659,-2.8959475333358133,-1.4854172038388145,0.5376304195274365,-0.6805259894488931,0.6627132228429271,-1.0376597073517835,2.793417529516328,2.528070648605856,1.2296261287534345,0.11854825776257925,-3.3271863113289477,-2.351756407004821,-1.7194883112546377,-2.4603338592393533],[1.0759476222807187,0.556523982026711,4.948528929974086,-0.1127194146191278,0.6417973653131168,3.700288737992328,-2.078766702547121,5.674593241485197,-2.3319129131043566,3.1218474038188444,-1.3007412573864638,1.2405045925964995,-3.4971938100238367,1.0725211461057205,-1.818683486568266,0.5265744804614604,1.5123314785530015,0.8753015329885877,1.1525688611190865,0.8210821691783086,1.0991368732853848,0.08403886379946424,-1.2955989051089194,0.6763977094456898,0.49463074108971355],[0.7395882599761389,0.9209105644161973,0.2826725237649987,0.46625562686738714,0.7122432816462148,0.9530971128313307,0.5611744592725716,0.20678247132726865,0.9557864733759205,0.8838754480628807,0.45013449792681576,0.6828623804659647,1.306876069793524,0.6794285513627041,0.7663841794841915,0.1316902876344376,1.1625681124833103,1.1030497566936552,1.1819224540132571,0.8370033455860648,0.3018842626331517,0.22700444096433106,0.878862516889419,0.39205857872851424,0.7404909385769292],[0.8362612354768038,2.60648345824354,-3.437084240922476,1.8150586259587351,1.0537269337569821,-1.5395733887021616,2.2972368278928816,-5.158391566069746,2.263169668987638,-2.3877689637349713,1.2330081647764048,-0.3484935595385598,3.1931005782260136,-1.7985311864918736,0.7896807234595415,1.2867744473624243,-0.508282976044696,-2.571390200845578,-1.5837430893414612,0.7277741922449987,1.9912623977136241,3.2613321847314913,2.9453879097340083,2.468667684593068,2.420039810430777],[1.3688363306571119,2.0209365791932363,5.635775963369425,1.3138305402438282,0.949429790059805,0.4769669190980086,1.315547163696297,4.986240417519113,0.041883639708756755,-0.16702705752978117,-0.3149513228794491,0.3412302238543334,-4.9128620625041295,-1.5408422223472475,-0.4784095737116342,1.371270985827461,-0.3549189210654859,-1.5033891700603446,-1.1454713908321548,0.6495855708403847,2.056929603765196,3.0515796224298835,0.8459336887035519,2.898221178834279,2.116253913290231]],"activates":[0.9869525212174753,0.9999581976286102,0.9983138790031874,0.843045976379659,0.5697598463946422,0.9999768945789101,0.8304771276274363,0.20567863426493108],"bias":0},{"cnt":8,"weights":[[0.7158731405318185,1.1551650316078215,0.7361560865034925,0.8247899700521182,1.625828985721044,1.07139782456495,0.8371688542416427,1.6963453719869763],[-2.661001960694111,1.6115298247824,-1.7249270348284114,-2.5962640407982955,-1.4949937707271763,3.228978555016088,0.8412653848616465,0.9885276708108447],[0.7144358657545518,-0.9420435019983908,1.058281879617117,-3.0668672315173033,-2.8637140593352,-0.21967381752290657,8.256942706546415,1.5550856693833737],[-0.8715644485971892,-0.8476585389733008,-0.9844485636960243,-1.1684469471640646,-0.8888818111448721,-1.6952752186296443,-0.9418488896313495,-1.9105236115526474],[1.8829761314059559,1.9676416820159262,2.110217648030544,-0.9733851375128668,-1.2034546147249257,1.2593461831207478,-1.5748137749883622,-8.54062095772583],[-0.8838253491640261,-0.9002147958869735,-0.9059591650937369,-0.5826077544205525,-1.1904781666056645,-1.6514780198073433,-0.5708186461733485,-1.7726885654837172],[-2.3389343971793797,-2.4856272088052136,-2.1150046263229663,-8.05395402905317,-0.7389043611001017,-0.8127588756750882,5.75326495836355,3.1283236298518613],[0.9194229724333602,1.4024765473859961,1.3590993675927818,0.8487044111234506,1.385516540611942,1.2642834379995789,1.4663947345235981,1.7956993817310845]],"activates":[0.9982277950130501,0.1615796360385271,0.9723435307655554,0.0008645106432275198,0.9322126596045346,0.0017674471251429603,0.00007428060764373234,0.99967225914478],"bias":0},{"cnt":5,"weights":[[-0.6554875574724923,-1.2206444201036153,4.214138635388845,0.6358747588905774,-3.6373903142066384,0.3730516042357451,-4.97399585829358,-1.138529287778862],[-1.135958032604957,-0.9258470113848558,-4.479056020152915,0.5801216921218534,4.528556999378592,0.2136122411634252,-1.4245944905156458,-0.8915375361695782],[-3.125543806772302,0.6391376665864371,4.093906040711076,0.8998267401967478,4.356932337222209,1.0175539190222622,-1.602079072042364,-3.5777606724904527],[1.0987943872608308,0.9688722931727707,-4.797703048139135,0.2182738619930876,-4.682873200236683,0.368376170383209,-2.1609502891917165,0.608941772350936],[-2.0232515392596415,0.9304171305062426,1.4142428239828881,0.5312440734936984,-1.5245227622794533,0.6425679764916054,5.740953248275915,-2.5082793226315787]],"activates":[0.21719218936997994,0.09049400543782235,0.8102148397872049,0.0007705535112248352,0.011881561018031951],"bias":0}]