[{"cnt":25,"weights":[[-1.0005887551527934,0.49791791323228674,-1.6706909401284022,-0.4233012449257381,-0.3303541094955561,-1.3219970458973096,1.0474991938240297,-0.1363868838322576,-0.9104878943952323,-2.1415245575352895,-1.3570435731347623,0.32463836755930775,0.25858657494130255,-0.019199986040832707,-0.26731209028890845,-0.10232962893516455,1.1902821751761836,0.20562494714301968,-0.17132099611929597,0.6264631039159791,-0.6504091379577693,1.4142001310107233,0.42736840337376714,1.2916056998293737,1.0191573559292484],[-0.7855795886692507,-0.8213368838654866,-0.19378000564603268,-0.9521227243926439,-0.5674665802508329,-0.5367424275237874,-0.044740035938331126,-0.36623075653107323,0.532064409771857,0.17593218104598332,1.1635007421588492,1.1030752125870624,-1.136208235057814,0.30569347251866336,0.38256356731109037,-0.9103013507736208,-0.4805765710633025,0.23652687642123957,-0.3472269182458791,-0.8087248829407222,-0.12894992478876915,-1.5104617409139125,0.7576217696693335,-1.2263366110026668,-1.186126881015179],[-0.21961684837131068,0.9405906719958562,0.5586485339493097,0.15840968582006312,0.07474947826408054,1.0836531707009167,-0.43658588997363507,-0.2306002651458016,-0.39975577874417656,0.3800221958278111,-1.1490905329866654,0.1668664043938291,0.4262832945580817,0.09433458937561576,-1.365199201342857,0.3049923592311027,0.22445262615087352,0.28895014036888966,-0.026962872362534866,0.3945161019998149,0.28447871268259156,0.4688448271801054,-0.3776324543321193,1.2159999068524614,0.10550765495029717],[0.42509681298171664,0.5458572791073969,-1.1060967226735854,0.27746308008319326,0.5158803978938343,0.5234067626828478,0.30413109964244456,-0.7705075715633236,-0.5446432034645823,1.0007467499378166,-0.7693099600060703,0.6814802412106837,1.27530447107157,0.7823770443183531,-0.38110071811598883,0.3043107146449828,-0.02644312751040818,-0.2693883206394023,0.3426777988388025,-0.3314847117730963,0.09597188141188334,0.5531888306972039,0.41938416901136555,0.6038179751878285,0.14160272219110026],[-0.012504775196298945,0.33445097519516875,0.23447914075788265,0.4787588550863813,0.6130462216518092,0.3617425455977073,0.05771891820864256,0.23350264832120635,0.69307082251058,0.1306025510957909,0.3967942179223284,0.0746870440623874,0.761893646764343,0.6472636532160945,-0.014779496735113619,0.4657294148265051,1.038857706635947,0.5169849948278163,0.521348567067378,0.13230461720110387,-0.3582310023333947,-0.02009274304067617,0.5858381440711977,0.7512919563232485,0.5269563599425772],[-0.2847147205934022,0.499994392042652,0.7000512690755178,-0.5218417722057885,0.4485595783502343,-0.7066672204866767,0.4504012764267665,0.31602146409737125,0.2989968689159017,-0.14583307027134268,-0.12521037443870717,0.2040272329110056,-0.5887021079665853,-0.12641790617878879,0.08941034795902714,-0.21459569726973754,-0.22033628769548808,0.32491350540460123,-0.14595113626154033,-0.15366432501215854,-0.24581383906524124,0.44511297380815346,-0.10358108785555176,0.11252533107625803,0.5334255401363448],[-0.45853533843286565,-0.0662355800585828,-0.21535851712972837,-0.798387957118778,-0.4294443468717227,0.03952167568159913,0.8557012622727397,-0.41607597860764284,0.1844976736361263,-0.8920597260995113,0.17752791211698232,1.6476392107654387,0.15343622356343312,1.3557690494422598,-0.09200914126104297,0.08279658835066192,1.000283180188788,0.5720565393116976,0.4118956635375484,0.02996574065219143,-0.9602307028475572,0.4228926135792809,-0.21854182170174952,-0.5008106535074042,-0.7058398104013436],[-0.23716266127232108,-0.6760490020855919,0.022606670116993518,0.1843242469308866,0.009974338545823124,-0.7356530420560551,-0.6609275530850406,-0.23854943000953371,-0.00747220362365557,-0.13744295973590365,0.21613784943797812,-0.20644302302648196,-0.15557464573462967,-0.14394496118024872,-0.14565389957015362,0.06922938376061492,-0.8830886414475356,-0.24283022740610105,-0.721031813422139,0.004606447203548459,-0.3553115324702932,-0.5434787732956649,-0.4214068287106594,-0.7447844920291737,0.1086146800651004],[-0.879524677133787,-0.7116964114889585,0.9195583768229114,-0.7298006499034972,-0.2701614890973002,0.990342908699432,-1.184961458640049,0.6728852738569943,-0.3691487362916517,0.5360244247015243,-0.1439571073406084,0.9953436985049243,-1.116987042397509,0.45201407424815737,-0.1366761409703611,-0.5645243331008094,-0.029793386481103835,0.12267241844667387,0.23563280972423933,-0.7793180756704372,-0.4505131582272984,-0.26019806583301586,-0.21613873229691646,-0.34004085467003525,-0.5239291366630726],[-0.016987585359081,0.18472406740645692,-0.717649018416027,0.298251350323238,0.08739016570932355,0.23063466644179498,0.10993372509909795,-0.7279768035179234,-0.9175405419699545,0.6840597432394527,-1.5872412820841055,1.1238453430922286,0.8373328619470359,1.0942236469358964,-0.7529943364030214,-0.28864013145785056,0.8536577210613682,0.0215129630327199,0.7002054974576132,0.58880100310745,0.05353386005806155,0.24771264586521521,-0.8933505818695702,0.1686902031811102,-0.42429737537864065],[-0.09145141456528556,0.24044540651740245,1.6599969255777762,0.29268625187338226,0.3701558095450684,1.1296965468524534,-0.7085933741714829,0.6565344759452664,-0.39088124767865073,1.1421595887065161,0.6340177292770701,0.18814661433573288,-0.833637159838233,-0.027032161033452448,-0.45370559672242056,0.002612826763694388,-0.2175005832736994,-0.15454558370833138,0.4326722325643461,-0.21458315787552754,0.3868865662584933,-0.8004421831785412,0.13984895681628534,-0.3212156047035583,-0.7082757315833733],[0.24042138382905434,0.9304889206939521,1.0342679163472939,1.0198951912710144,-0.17398560991200226,0.5506173889577848,0.279177121918423,1.6842835876211963,-0.22409863592184098,0.158394243278978,-0.599525429842729,-0.8327296266049438,-0.3090256925330828,-0.8939310206723888,-0.18629049328833813,0.4136487363165777,0.7791290507187997,0.3275840486399144,-0.4525648781811807,0.8506350489434797,0.338913892338579,0.9364805777683051,-0.12460983679357272,1.4308408481107464,1.0507756292295667],[0.42091982377526627,0.8277672066906526,0.3791704522798374,0.0038975454373693114,0.20146390136235445,-0.8874658406906166,0.84889097259046,0.2930296085443252,0.7322152552839573,-0.49267825101080737,0.20971475595335656,-0.8480244367696973,0.30002292576367373,0.09167463477662541,0.9672740373962841,0.8263896980170026,0.3416949271040947,-0.10622674642046497,-0.09393955447506591,-0.05782843221609654,-0.07080247548008306,0.6497915908160076,0.9517329866437241,0.12621380887642802,0.11480642215836065],[-0.026806387028400953,-0.47296996338221253,0.852149883097612,0.24354886370318676,0.606347890614301,0.8360757116945611,-0.34299373189377974,-0.3235077533701132,0.29843384946314,1.3303725899761354,0.8810079015294283,-0.055739356997235416,-0.35650019523007614,0.2688489449281907,0.9891886798683517,-0.46640360111240853,-0.45021369417828516,-0.0035444943343984282,0.15520994940101993,-0.6143416826840176,0.5743657661699065,-1.3808279157896781,0.27072237253789744,-0.3838719991278794,-0.5527775048006676],[0.12034745661360342,1.7134595914023993,-0.2917467848896524,0.8314899484797182,0.4804050935450012,-0.5207795736759119,0.5261285632193395,1.3698803368653205,-0.5758445720847456,-0.0005916797074344564,-0.32239931713742465,-1.101890052482622,0.9104397179822635,-0.6497878060152438,-0.4191351105178812,1.020799319062157,0.0031460022221497332,-0.1878500079892353,-0.42160829633645913,0.7047369036669406,0.34788841759195255,1.1164072228598632,-0.1947940979733415,1.5153236783456057,1.0089475901598277],[0.6044682355192809,-0.4386660853847176,-0.6122104662202439,-0.25536200990315583,-0.2867916355972721,0.543177334292353,-0.5581927574645045,-0.5778631907179398,-0.05107679520687187,1.3245420362326152,1.2199183765882418,-0.6052686416144857,0.9749474230789965,-1.235292035330143,-0.06430499093756989,-0.6213470447041696,0.23236105330872955,-0.09229316830995798,0.2531396171735502,-1.051877906729198,-0.15751069564706763,-0.06231812800502564,0.7194653977955088,0.4866668054211419,-0.08497460520679875],[-0.2623970809133812,0.1736722055764757,-1.2516461187985943,0.5979349453009812,0.3370974445145434,-0.7034027717838294,0.8329439589750658,-1.0490041494583555,0.9278324886166651,-0.47903428945444776,0.8700154081165735,-1.3499313275196023,1.1229729612908503,-1.121986763087822,1.178795547684267,0.4401108427631463,-0.2183893687790644,-0.3919523349547197,-0.7638999975503498,-0.44280545947431055,-0.07327124612886579,-0.2775663318581616,0.7872544373356622,0.38955334023916816,-0.09528691175617951],[-0.4659010594629573,-0.9619844529338348,0.46245555112172415,-0.7308230893677529,-0.5725850639868104,-0.7384314105869346,0.5588377387121631,0.09001831491749565,0.2658084465648246,-0.8245020839419165,0.8833196973609565,0.574681857676697,-0.6309942442509351,-0.12221408659362583,0.5367673668008744,-0.38575140066044794,0.40078069857522586,-0.18272557934313957,-0.14470564945599734,0.05205311885336828,-0.24169730281347745,-0.6335120202576213,0.19712008630870165,-0.04531542940216228,-0.2122799841004872],[0.08172196025244984,0.8006656605042444,0.5843678728749938,0.8469083848713278,0.9335799644038061,-0.10113547714863937,0.617531814073413,2.468323833692523,-0.09464832298947003,-0.8045103975092164,-0.6956937746036683,-1.1080918112126183,0.1195132989433576,-1.1498972329526584,0.05912237212722013,0.9298983260545183,0.3007158529056586,0.24943328966455455,-0.4423567092655575,0.7925615228325461,0.400995137302699,2.0532479333630196,-0.15273903945289066,1.7624543333636304,1.029214510900837],[0.5685051905379245,-0.24484028171922761,0.46928348016244714,1.0808119292822245,0.36779060797659263,1.2519689146432043,-1.375527186937916,-0.7562035332342116,0.2525655122010607,1.2865507936210325,-0.032153875657070154,-2.244572705045221,0.5707144732352895,-1.9994287721811046,-0.4672648900648463,-0.2761787813242226,-0.5644724701551548,-0.5637506438117708,-0.07577497967658588,-0.221600357151733,0.5835102046523187,-0.0771734085146579,0.10376266916129984,0.1412393706454992,-0.027177046208502205],[0.1604436314308501,-0.02176701027250367,-0.8544030344005071,0.34624982005263866,-0.22328352200704557,0.9921404428616317,-0.8478911721169299,-0.47552664246138404,-0.26047140964989896,0.48158500014097594,-0.5216646381447958,0.22869617949328636,0.6614727418798176,-0.09932218455817968,-0.12350789834321828,-0.4802649503187705,-0.23156262366775593,-0.36302244199915973,0.15819022468110344,-0.5479547312460642,-0.07051758465153964,-0.3924647277990669,-0.6792239794413876,-0.16721480193463836,0.31610903660734607],[-0.4404867642474961,0.15347993283267758,-1.112838554132337,0.19492794767023622,0.34107330474886893,-0.8426551124085145,0.1503846207300225,-1.4476339540460206,-0.16286055776221928,-0.6367166398665537,0.541068854682382,-0.3570327379949177,1.3846859061213566,0.19619901825722025,0.6651329039093519,-0.30479040388868844,-0.41923443010575995,0.18643525899533292,-0.2119308133347289,0.3498164647178376,-0.15053652993839509,-0.2561326778295717,0.14287977755486375,-0.23672292001916548,-0.12343360128348885],[0.587052530235062,0.8713913554219622,-1.121274124053293,-0.13057436445045265,0.13475659057929004,-0.38325284582195057,0.3901878283593632,0.4081910053214761,-0.7589537811058819,-0.9780121490152978,-1.5444665866079244,1.360611386235497,0.46032740359448987,1.281970384215066,-0.07609701483750744,0.5571263278333329,0.4188593365970278,-0.2632410738415981,-0.007918686378397892,0.4959576200808539,-0.1923033948493244,0.9329316365436114,-0.830949518530213,0.12060135137459552,-0.21424719754250074],[0.8295921235788869,1.1980060369381977,1.2756058135120378,0.908421274359577,0.5398765996449809,-0.07520150370665468,0.3656175484826488,2.5860808706759055,-0.34783016958513735,-0.9297509987648691,-0.7799961698970735,-1.2098329948051496,-0.6768743324356917,-0.90766938562093,0.06798332928518792,0.7555016888050408,0.5985890552933789,0.4037735051471583,-0.11154707285720261,1.0430234259433295,0.1224660007492462,1.6704987564176392,0.3945319772386999,1.050791740685446,0.9961655354879507],[-0.49518816408542177,0.184094958212028,-1.8083268983913807,0.7385505969717404,-0.5266535812031773,1.0998941147707575,-0.6048178062314438,-1.1886452250369905,-1.2731596767712998,0.6463239320920254,-1.8210766021526004,2.552266079551534,1.378776703100128,2.031738285200089,-1.051948421351549,-0.01690552227220576,1.1615325031732695,0.540829305457029,0.691312212748927,0.8917792271226558,-0.24325674950323894,0.5042785854998658,-1.3864440655018508,-0.16124256663676792,-0.01723873511773138]],"activates":[0.9153606769232097,0.026023989002449115,0.970027447090485,0.9695778567245421,0.996243481919703,0.6681498373181832,0.9509762130626017,0.02724369026130546,0.19672540720745046,0.9071984344567486,0.48261081988282767,0.976948603532976,0.9722440574300422,0.23750283848082615,0.9636033443185499,0.3001143318937943,0.44514678201046964,0.22723387356444094,0.9813392700958203,0.07501355846128509,0.18694093742285567,0.38398938290514306,0.931178902052245,0.9811874213977481,0.9805842600767848],"bias":0},{"cnt":5,"weights":[[-0.8141638022921265,-0.03429528943718356,0.5458619226626998,-0.2780221815746043,-0.31373530257199234,0.035347530437108324,-1.2199897739074286,-0.19096413305036772,-0.7109800281183499,-0.5531038822597026,0.4192564128314495,0.2933807630464161,-0.2429335283768518,-0.2652355670424494,0.703006214151321,0.3854321748342166,0.522248042653064,-0.9851815780282032,0.37848845115255236,1.2477451793824583,-0.034896031351802276,-0.40207960617681343,-0.5889159671761433,-0.2666312314916259,-1.7319770777753143],[-0.7734719050872502,-0.0751866858394492,0.6289485022215079,0.4180143467932932,-0.6900683096786815,-0.5367715516905543,-0.21966133882020034,0.25740700376515435,0.825501044609613,0.46061693601273407,0.2002594419847932,-0.33331008214156005,-0.9424747067374133,0.1836595093122379,-0.6230254451165553,0.3507713489940231,-0.9899420011128032,-0.8245417266840231,-1.3998437643944157,0.49286387485820365,0.7268443434397307,-0.16476056571267964,-0.1093578653795011,-1.2119247514142204,0.7507411948693442],[0.3162921402251756,0.6589892020231375,-0.9831791634190667,-0.12459165303816078,-0.4920808807707647,-0.07816514828602582,0.3684489170469771,0.36447595609838696,-0.7139532142722281,-0.20615918646606804,-0.9387652129565581,-1.1838432355801498,0.4710681938473001,-0.16539375769013134,-0.44610844607596983,-0.046875832117725405,0.9297988264813235,0.27773847624323716,-1.1631893393599617,-0.33526031762115277,-0.18172737172201528,1.0516268328389842,0.13886480504296184,-1.126134482928122,0.21159308080201708],[-0.23133597208587195,0.9570093176870452,-0.6810899256028515,-1.230594904405622,-0.3227144403069407,0.42696669394317915,0.2544444079975259,0.2910152835934176,0.4350482542519257,-0.638940908539934,0.13148276530445294,0.03612916518754516,-0.10281774741560161,0.35749396797364724,-0.7125819883961558,-0.6389737110545717,-0.7764881261688336,0.9691428866117503,-0.031343072518378125,-0.6787339627059695,-0.5869169096273867,-0.7175803610339756,-0.19122830300613303,0.5717663521837093,-1.2551760067043929],[1.145504040234269,-1.1923297991238504,0.11991395886325991,-0.608624361689046,-0.8981467022414391,0.19053455090077034,0.27501457651204064,-0.03739072748753782,-0.6376688733492675,0.576223105077682,-1.0700949775786488,0.6958456509060371,-0.23177185051086424,-1.4044440317857487,0.9157715709971586,-1.2487635349706605,-0.914763073747749,-0.7243769442428747,1.1890225449939718,-1.1802873063412094,-0.24291191037336343,-0.10736920291318483,1.0347532784662854,1.0605559698740943,1.3184028549479403]],"activates":[0.02198969482946281,0.012056547922086047,0.017981922571426237,0.010394635832177174,0.9861157458397777],"bias":0}]